digraph Tree {
node [shape=box, fontname="helvetica"] ;
edge [fontname="helvetica"] ;
0 [label="G <= 0.5\nentropy = 2.433\nsamples = 70\nvalue = [26, 15, 5, 11, 3, 4, 6]"] ;
1 [label="L <= 0.5\nentropy = 2.356\nsamples = 44\nvalue = [0, 15, 5, 11, 3, 4, 6]"] ;
0 -> 1 [labeldistance=2.5, labelangle=45, headlabel="True"] ;
2 [label="I <= 0.5\nentropy = 0.971\nsamples = 10\nvalue = [0, 0, 0, 0, 0, 4, 6]"] ;
1 -> 2 ;
3 [label="Q <= 0.5\nentropy = 0.918\nsamples = 6\nvalue = [0, 0, 0, 0, 0, 4, 2]"] ;
2 -> 3 ;
4 [label="entropy = 0.722\nsamples = 5\nvalue = [0, 0, 0, 0, 0, 4, 1]"] ;
3 -> 4 ;
5 [label="entropy = 0.0\nsamples = 1\nvalue = [0, 0, 0, 0, 0, 0, 1]"] ;
3 -> 5 ;
6 [label="entropy = 0.0\nsamples = 4\nvalue = [0, 0, 0, 0, 0, 0, 4]"] ;
2 -> 6 ;
7 [label="Q <= 0.5\nentropy = 1.763\nsamples = 34\nvalue = [0, 15, 5, 11, 3, 0, 0]"] ;
1 -> 7 ;
8 [label="entropy = 0.0\nsamples = 3\nvalue = [0, 0, 0, 0, 3, 0, 0]"] ;
7 -> 8 ;
9 [label="I <= 0.5\nentropy = 1.462\nsamples = 31\nvalue = [0, 15, 5, 11, 0, 0, 0]"] ;
7 -> 9 ;
10 [label="N <= 0.5\nentropy = 0.89\nsamples = 13\nvalue = [0, 9, 4, 0, 0, 0, 0]"] ;
9 -> 10 ;
11 [label="entropy = 0.811\nsamples = 12\nvalue = [0, 9, 3, 0, 0, 0, 0]"] ;
10 -> 11 ;
12 [label="entropy = 0.0\nsamples = 1\nvalue = [0, 0, 1, 0, 0, 0, 0]"] ;
10 -> 12 ;
13 [label="F <= 0.5\nentropy = 1.194\nsamples = 18\nvalue = [0, 6, 1, 11, 0, 0, 0]"] ;
9 -> 13 ;
14 [label="entropy = 0.0\nsamples = 1\nvalue = [0, 0, 1, 0, 0, 0, 0]"] ;
13 -> 14 ;
15 [label="N <= 0.5\nentropy = 0.937\nsamples = 17\nvalue = [0, 6, 0, 11, 0, 0, 0]"] ;
13 -> 15 ;
16 [label="entropy = 0.954\nsamples = 16\nvalue = [0, 6, 0, 10, 0, 0, 0]"] ;
15 -> 16 ;
17 [label="entropy = 0.0\nsamples = 1\nvalue = [0, 0, 0, 1, 0, 0, 0]"] ;
15 -> 17 ;
18 [label="entropy = 0.0\nsamples = 26\nvalue = [26, 0, 0, 0, 0, 0, 0]"] ;
0 -> 18 [labeldistance=2.5, labelangle=-45, headlabel="False"] ;
}