digraph Tree {
node [shape=box, fontname="helvetica"] ;
edge [fontname="helvetica"] ;
0 [label="G <= 0.5\nentropy = 2.313\nsamples = 70\nvalue = [29, 17, 4, 7, 2, 6, 5]"] ;
1 [label="Q <= 0.5\nentropy = 2.278\nsamples = 41\nvalue = [0, 17, 4, 7, 2, 6, 5]"] ;
0 -> 1 [labeldistance=2.5, labelangle=45, headlabel="True"] ;
2 [label="L <= 0.5\nentropy = 1.46\nsamples = 13\nvalue = [0, 0, 0, 0, 2, 6, 5]"] ;
1 -> 2 ;
3 [label="I <= 0.5\nentropy = 0.994\nsamples = 11\nvalue = [0, 0, 0, 0, 0, 6, 5]"] ;
2 -> 3 ;
4 [label="entropy = 0.811\nsamples = 8\nvalue = [0, 0, 0, 0, 0, 6, 2]"] ;
3 -> 4 ;
5 [label="entropy = 0.0\nsamples = 3\nvalue = [0, 0, 0, 0, 0, 0, 3]"] ;
3 -> 5 ;
6 [label="entropy = 0.0\nsamples = 2\nvalue = [0, 0, 0, 0, 2, 0, 0]"] ;
2 -> 6 ;
7 [label="I <= 0.5\nentropy = 1.338\nsamples = 28\nvalue = [0, 17, 4, 7, 0, 0, 0]"] ;
1 -> 7 ;
8 [label="entropy = 0.75\nsamples = 14\nvalue = [0, 11, 3, 0, 0, 0, 0]"] ;
7 -> 8 ;
9 [label="F <= 0.5\nentropy = 1.296\nsamples = 14\nvalue = [0, 6, 1, 7, 0, 0, 0]"] ;
7 -> 9 ;
10 [label="entropy = 0.0\nsamples = 1\nvalue = [0, 0, 1, 0, 0, 0, 0]"] ;
9 -> 10 ;
11 [label="entropy = 0.996\nsamples = 13\nvalue = [0, 6, 0, 7, 0, 0, 0]"] ;
9 -> 11 ;
12 [label="entropy = 0.0\nsamples = 29\nvalue = [29, 0, 0, 0, 0, 0, 0]"] ;
0 -> 12 [labeldistance=2.5, labelangle=-45, headlabel="False"] ;
}