digraph Tree {
node [shape=box, fontname="helvetica"] ;
edge [fontname="helvetica"] ;
0 [label="Magnesium <= 2.695\nentropy = 2.177\nsamples = 214\nvalue = [70, 76, 17, 13, 9, 29]"] ;
1 [label="Sodium <= 13.785\nentropy = 1.882\nsamples = 61\nvalue = [0, 13, 0, 13, 9, 26]"] ;
0 -> 1 [labeldistance=2.5, labelangle=45, headlabel="True"] ;
2 [label="Aluminium <= 1.38\nentropy = 1.207\nsamples = 24\nvalue = [0, 11, 0, 12, 0, 1]"] ;
1 -> 2 ;
3 [label="Potassium <= 1.515\nentropy = 0.544\nsamples = 8\nvalue = [0, 7, 0, 0, 0, 1]"] ;
2 -> 3 ;
4 [label="entropy = 0.0\nsamples = 7\nvalue = [0, 7, 0, 0, 0, 0]"] ;
3 -> 4 ;
5 [label="entropy = 0.0\nsamples = 1\nvalue = [0, 0, 0, 0, 0, 1]"] ;
3 -> 5 ;
6 [label="Iron <= 0.085\nentropy = 0.811\nsamples = 16\nvalue = [0, 4, 0, 12, 0, 0]"] ;
2 -> 6 ;
7 [label="entropy = 0.0\nsamples = 10\nvalue = [0, 0, 0, 10, 0, 0]"] ;
6 -> 7 ;
8 [label="Iron <= 0.425\nentropy = 0.918\nsamples = 6\nvalue = [0, 4, 0, 2, 0, 0]"] ;
6 -> 8 ;
9 [label="Potassium <= 0.31\nentropy = 0.722\nsamples = 5\nvalue = [0, 4, 0, 1, 0, 0]"] ;
8 -> 9 ;
10 [label="entropy = 0.0\nsamples = 1\nvalue = [0, 0, 0, 1, 0, 0]"] ;
9 -> 10 ;
11 [label="entropy = 0.0\nsamples = 4\nvalue = [0, 4, 0, 0, 0, 0]"] ;
9 -> 11 ;
12 [label="entropy = 0.0\nsamples = 1\nvalue = [0, 0, 0, 1, 0, 0]"] ;
8 -> 12 ;
13 [label="Barium <= 0.2\nentropy = 1.247\nsamples = 37\nvalue = [0, 2, 0, 1, 9, 25]"] ;
1 -> 13 ;
14 [label="Potassium <= 0.05\nentropy = 1.041\nsamples = 12\nvalue = [0, 2, 0, 0, 9, 1]"] ;
13 -> 14 ;
15 [label="entropy = 0.0\nsamples = 9\nvalue = [0, 0, 0, 0, 9, 0]"] ;
14 -> 15 ;
16 [label="Aluminium <= 1.845\nentropy = 0.918\nsamples = 3\nvalue = [0, 2, 0, 0, 0, 1]"] ;
14 -> 16 ;
17 [label="entropy = 0.0\nsamples = 2\nvalue = [0, 2, 0, 0, 0, 0]"] ;
16 -> 17 ;
18 [label="entropy = 0.0\nsamples = 1\nvalue = [0, 0, 0, 0, 0, 1]"] ;
16 -> 18 ;
19 [label="Calcium <= 6.17\nentropy = 0.242\nsamples = 25\nvalue = [0, 0, 0, 1, 0, 24]"] ;
13 -> 19 ;
20 [label="entropy = 0.0\nsamples = 1\nvalue = [0, 0, 0, 1, 0, 0]"] ;
19 -> 20 ;
21 [label="entropy = 0.0\nsamples = 24\nvalue = [0, 0, 0, 0, 0, 24]"] ;
19 -> 21 ;
22 [label="Aluminium <= 1.42\nentropy = 1.507\nsamples = 153\nvalue = [70, 63, 17, 0, 0, 3]"] ;
0 -> 22 [labeldistance=2.5, labelangle=-45, headlabel="False"] ;
23 [label="Magnesium <= 3.865\nentropy = 1.35\nsamples = 101\nvalue = [64, 23, 13, 0, 0, 1]"] ;
22 -> 23 ;
24 [label="Magnesium <= 3.345\nentropy = 1.28\nsamples = 93\nvalue = [63, 17, 12, 0, 0, 1]"] ;
23 -> 24 ;
25 [label="Aluminium <= 1.18\nentropy = 1.349\nsamples = 11\nvalue = [5, 5, 0, 0, 0, 1]"] ;
24 -> 25 ;
26 [label="entropy = 0.0\nsamples = 4\nvalue = [0, 4, 0, 0, 0, 0]"] ;
25 -> 26 ;
27 [label="Calcium <= 8.925\nentropy = 1.149\nsamples = 7\nvalue = [5, 1, 0, 0, 0, 1]"] ;
25 -> 27 ;
28 [label="Sodium <= 13.215\nentropy = 1.0\nsamples = 2\nvalue = [0, 1, 0, 0, 0, 1]"] ;
27 -> 28 ;
29 [label="entropy = 0.0\nsamples = 1\nvalue = [0, 1, 0, 0, 0, 0]"] ;
28 -> 29 ;
30 [label="entropy = 0.0\nsamples = 1\nvalue = [0, 0, 0, 0, 0, 1]"] ;
28 -> 30 ;
31 [label="entropy = 0.0\nsamples = 5\nvalue = [5, 0, 0, 0, 0, 0]"] ;
27 -> 31 ;
32 [label="Silicon <= 72.25\nentropy = 1.165\nsamples = 82\nvalue = [58, 12, 12, 0, 0, 0]"] ;
24 -> 32 ;
33 [label="Iron <= 0.27\nentropy = 0.426\nsamples = 23\nvalue = [21, 0, 2, 0, 0, 0]"] ;
32 -> 33 ;
34 [label="Aluminium <= 0.645\nentropy = 0.267\nsamples = 22\nvalue = [21, 0, 1, 0, 0, 0]"] ;
33 -> 34 ;
35 [label="Aluminium <= 0.545\nentropy = 0.722\nsamples = 5\nvalue = [4, 0, 1, 0, 0, 0]"] ;
34 -> 35 ;
36 [label="entropy = 0.0\nsamples = 4\nvalue = [4, 0, 0, 0, 0, 0]"] ;
35 -> 36 ;
37 [label="entropy = 0.0\nsamples = 1\nvalue = [0, 0, 1, 0, 0, 0]"] ;
35 -> 37 ;
38 [label="entropy = 0.0\nsamples = 17\nvalue = [17, 0, 0, 0, 0, 0]"] ;
34 -> 38 ;
39 [label="entropy = 0.0\nsamples = 1\nvalue = [0, 0, 1, 0, 0, 0]"] ;
33 -> 39 ;
40 [label="Silicon <= 72.92\nentropy = 1.324\nsamples = 59\nvalue = [37, 12, 10, 0, 0, 0]"] ;
32 -> 40 ;
41 [label="Magnesium <= 3.665\nentropy = 1.565\nsamples = 31\nvalue = [12, 11, 8, 0, 0, 0]"] ;
40 -> 41 ;
42 [label="Potassium <= 0.625\nentropy = 1.516\nsamples = 24\nvalue = [11, 5, 8, 0, 0, 0]"] ;
41 -> 42 ;
43 [label="Silicon <= 72.71\nentropy = 1.423\nsamples = 22\nvalue = [11, 3, 8, 0, 0, 0]"] ;
42 -> 43 ;
44 [label="Magnesium <= 3.6\nentropy = 0.918\nsamples = 9\nvalue = [3, 0, 6, 0, 0, 0]"] ;
43 -> 44 ;
45 [label="Aluminium <= 1.395\nentropy = 0.592\nsamples = 7\nvalue = [1, 0, 6, 0, 0, 0]"] ;
44 -> 45 ;
46 [label="entropy = 0.0\nsamples = 6\nvalue = [0, 0, 6, 0, 0, 0]"] ;
45 -> 46 ;
47 [label="entropy = 0.0\nsamples = 1\nvalue = [1, 0, 0, 0, 0, 0]"] ;
45 -> 47 ;
48 [label="entropy = 0.0\nsamples = 2\nvalue = [2, 0, 0, 0, 0, 0]"] ;
44 -> 48 ;
49 [label="Magnesium <= 3.51\nentropy = 1.335\nsamples = 13\nvalue = [8, 3, 2, 0, 0, 0]"] ;
43 -> 49 ;
50 [label="entropy = 0.0\nsamples = 5\nvalue = [5, 0, 0, 0, 0, 0]"] ;
49 -> 50 ;
51 [label="Iron <= 0.125\nentropy = 1.561\nsamples = 8\nvalue = [3, 3, 2, 0, 0, 0]"] ;
49 -> 51 ;
52 [label="Calcium <= 8.4\nentropy = 1.459\nsamples = 6\nvalue = [3, 1, 2, 0, 0, 0]"] ;
51 -> 52 ;
53 [label="entropy = 0.0\nsamples = 2\nvalue = [2, 0, 0, 0, 0, 0]"] ;
52 -> 53 ;
54 [label="Calcium <= 8.65\nentropy = 1.5\nsamples = 4\nvalue = [1, 1, 2, 0, 0, 0]"] ;
52 -> 54 ;
55 [label="Silicon <= 72.76\nentropy = 0.918\nsamples = 3\nvalue = [0, 1, 2, 0, 0, 0]"] ;
54 -> 55 ;
56 [label="entropy = 0.0\nsamples = 1\nvalue = [0, 1, 0, 0, 0, 0]"] ;
55 -> 56 ;
57 [label="entropy = 0.0\nsamples = 2\nvalue = [0, 0, 2, 0, 0, 0]"] ;
55 -> 57 ;
58 [label="entropy = 0.0\nsamples = 1\nvalue = [1, 0, 0, 0, 0, 0]"] ;
54 -> 58 ;
59 [label="entropy = 0.0\nsamples = 2\nvalue = [0, 2, 0, 0, 0, 0]"] ;
51 -> 59 ;
60 [label="entropy = 0.0\nsamples = 2\nvalue = [0, 2, 0, 0, 0, 0]"] ;
42 -> 60 ;
61 [label="Aluminium <= 1.275\nentropy = 0.592\nsamples = 7\nvalue = [1, 6, 0, 0, 0, 0]"] ;
41 -> 61 ;
62 [label="entropy = 0.0\nsamples = 5\nvalue = [0, 5, 0, 0, 0, 0]"] ;
61 -> 62 ;
63 [label="Calcium <= 8.32\nentropy = 1.0\nsamples = 2\nvalue = [1, 1, 0, 0, 0, 0]"] ;
61 -> 63 ;
64 [label="entropy = 0.0\nsamples = 1\nvalue = [1, 0, 0, 0, 0, 0]"] ;
63 -> 64 ;
65 [label="entropy = 0.0\nsamples = 1\nvalue = [0, 1, 0, 0, 0, 0]"] ;
63 -> 65 ;
66 [label="Potassium <= 0.53\nentropy = 0.59\nsamples = 28\nvalue = [25, 1, 2, 0, 0, 0]"] ;
40 -> 66 ;
67 [label="entropy = 0.0\nsamples = 2\nvalue = [0, 0, 2, 0, 0, 0]"] ;
66 -> 67 ;
68 [label="Magnesium <= 3.77\nentropy = 0.235\nsamples = 26\nvalue = [25, 1, 0, 0, 0, 0]"] ;
66 -> 68 ;
69 [label="entropy = 0.0\nsamples = 25\nvalue = [25, 0, 0, 0, 0, 0]"] ;
68 -> 69 ;
70 [label="entropy = 0.0\nsamples = 1\nvalue = [0, 1, 0, 0, 0, 0]"] ;
68 -> 70 ;
71 [label="Silicon <= 71.87\nentropy = 1.061\nsamples = 8\nvalue = [1, 6, 1, 0, 0, 0]"] ;
23 -> 71 ;
72 [label="Magnesium <= 4.195\nentropy = 1.0\nsamples = 2\nvalue = [1, 0, 1, 0, 0, 0]"] ;
71 -> 72 ;
73 [label="entropy = 0.0\nsamples = 1\nvalue = [0, 0, 1, 0, 0, 0]"] ;
72 -> 73 ;
74 [label="entropy = 0.0\nsamples = 1\nvalue = [1, 0, 0, 0, 0, 0]"] ;
72 -> 74 ;
75 [label="entropy = 0.0\nsamples = 6\nvalue = [0, 6, 0, 0, 0, 0]"] ;
71 -> 75 ;
76 [label="Magnesium <= 3.455\nentropy = 1.116\nsamples = 52\nvalue = [6, 40, 4, 0, 0, 2]"] ;
22 -> 76 ;
77 [label="Silicon <= 72.84\nentropy = 1.261\nsamples = 17\nvalue = [0, 11, 4, 0, 0, 2]"] ;
76 -> 77 ;
78 [label="Calcium <= 6.435\nentropy = 1.5\nsamples = 8\nvalue = [0, 2, 4, 0, 0, 2]"] ;
77 -> 78 ;
79 [label="entropy = 0.0\nsamples = 2\nvalue = [0, 0, 0, 0, 0, 2]"] ;
78 -> 79 ;
80 [label="Calcium <= 8.695\nentropy = 0.918\nsamples = 6\nvalue = [0, 2, 4, 0, 0, 0]"] ;
78 -> 80 ;
81 [label="Magnesium <= 3.44\nentropy = 0.918\nsamples = 3\nvalue = [0, 2, 1, 0, 0, 0]"] ;
80 -> 81 ;
82 [label="entropy = 0.0\nsamples = 2\nvalue = [0, 2, 0, 0, 0, 0]"] ;
81 -> 82 ;
83 [label="entropy = 0.0\nsamples = 1\nvalue = [0, 0, 1, 0, 0, 0]"] ;
81 -> 83 ;
84 [label="entropy = 0.0\nsamples = 3\nvalue = [0, 0, 3, 0, 0, 0]"] ;
80 -> 84 ;
85 [label="entropy = 0.0\nsamples = 9\nvalue = [0, 9, 0, 0, 0, 0]"] ;
77 -> 85 ;
86 [label="Sodium <= 12.835\nentropy = 0.661\nsamples = 35\nvalue = [6, 29, 0, 0, 0, 0]"] ;
76 -> 86 ;
87 [label="Calcium <= 8.085\nentropy = 0.985\nsamples = 7\nvalue = [4, 3, 0, 0, 0, 0]"] ;
86 -> 87 ;
88 [label="Iron <= 0.175\nentropy = 0.811\nsamples = 4\nvalue = [1, 3, 0, 0, 0, 0]"] ;
87 -> 88 ;
89 [label="entropy = 0.0\nsamples = 3\nvalue = [0, 3, 0, 0, 0, 0]"] ;
88 -> 89 ;
90 [label="entropy = 0.0\nsamples = 1\nvalue = [1, 0, 0, 0, 0, 0]"] ;
88 -> 90 ;
91 [label="entropy = 0.0\nsamples = 3\nvalue = [3, 0, 0, 0, 0, 0]"] ;
87 -> 91 ;
92 [label="Potassium <= 0.55\nentropy = 0.371\nsamples = 28\nvalue = [2, 26, 0, 0, 0, 0]"] ;
86 -> 92 ;
93 [label="Silicon <= 72.725\nentropy = 0.918\nsamples = 6\nvalue = [2, 4, 0, 0, 0, 0]"] ;
92 -> 93 ;
94 [label="entropy = 0.0\nsamples = 3\nvalue = [0, 3, 0, 0, 0, 0]"] ;
93 -> 94 ;
95 [label="Potassium <= 0.385\nentropy = 0.918\nsamples = 3\nvalue = [2, 1, 0, 0, 0, 0]"] ;
93 -> 95 ;
96 [label="entropy = 0.0\nsamples = 1\nvalue = [0, 1, 0, 0, 0, 0]"] ;
95 -> 96 ;
97 [label="entropy = 0.0\nsamples = 2\nvalue = [2, 0, 0, 0, 0, 0]"] ;
95 -> 97 ;
98 [label="entropy = 0.0\nsamples = 22\nvalue = [0, 22, 0, 0, 0, 0]"] ;
92 -> 98 ;
}